<?xml version="1.0"?>
<opencv_storage>
<stage0>
  <maxWeakCount>6</maxWeakCount>
  <stageThreshold>-9.5365136861801147e-02</stageThreshold>
  <weakClassifiers>
    <_>
      <internalNodes>
        0 -1 127994 -2.6261381804943085e-02</internalNodes>
      <leafValues>
        -8.8259106874465942e-01 7.5791513919830322e-01</leafValues></_>
    <_>
      <internalNodes>
        0 -1 121062 -1.2366641312837601e-03</internalNodes>
      <leafValues>
        6.1881995201110840e-01 -4.6257740259170532e-01</leafValues></_>
    <_>
      <internalNodes>
        0 -1 129408 4.8919478431344032e-03</internalNodes>
      <leafValues>
        -1.4774225652217865e-01 7.6372104883193970e-01</leafValues></_>
    <_>
      <internalNodes>
        0 -1 129803 -3.2560762483626604e-03</internalNodes>
      <leafValues>
        7.3423886299133301e-01 -2.1697983145713806e-01</leafValues></_>
    <_>
      <internalNodes>
        0 -1 112382 1.6347073018550873e-02</internalNodes>
      <leafValues>
        2.0652988553047180e-01 -7.3441296815872192e-01</leafValues></_>
    <_>
      <internalNodes>
        0 -1 121935 6.0440753586590290e-03</internalNodes>
      <leafValues>
        -2.0303112268447876e-01 7.0931434631347656e-01</leafValues></_></weakClassifiers></stage0>
</opencv_storage>
