<?xml version="1.0"?>
<opencv_storage>
<stage9>
  <maxWeakCount>40</maxWeakCount>
  <stageThreshold>-7.2141146659851074e-01</stageThreshold>
  <weakClassifiers>
    <_>
      <internalNodes>
        0 -1 119323 4.7342982143163681e-03</internalNodes>
      <leafValues>
        5.9973651170730591e-01 -3.4693878889083862e-01</leafValues></_>
    <_>
      <internalNodes>
        0 -1 126640 -2.2767432965338230e-03</internalNodes>
      <leafValues>
        -3.0777594447135925e-01 2.3959442973136902e-01</leafValues></_>
    <_>
      <internalNodes>
        0 -1 129812 -5.6527596898376942e-03</internalNodes>
      <leafValues>
        4.5242607593536377e-01 -1.4054027199745178e-01</leafValues></_>
    <_>
      <internalNodes>
        0 -1 129808 -5.4679526947438717e-03</internalNodes>
      <leafValues>
        4.7357571125030518e-01 -1.3514272868633270e-01</leafValues></_>
    <_>
      <internalNodes>
        0 -1 139236 -3.5152773489244282e-04</internalNodes>
      <leafValues>
        -4.3345105648040771e-01 1.2969440221786499e-01</leafValues></_>
    <_>
      <internalNodes>
        0 -1 33260 6.6342344507575035e-03</internalNodes>
      <leafValues>
        -1.0086365044116974e-01 5.5708718299865723e-01</leafValues></_>
    <_>
      <internalNodes>
        0 -1 99053 -2.5914639700204134e-03</internalNodes>
      <leafValues>
        3.4150102734565735e-01 -2.0524203777313232e-01</leafValues></_>
    <_>
      <internalNodes>
        0 -1 153976 -7.1205003187060356e-03</internalNodes>
      <leafValues>
        5.9808522462844849e-01 -8.9642807841300964e-02</leafValues></_>
    <_>
      <internalNodes>
        0 -1 148380 -1.4141727006062865e-03</internalNodes>
      <leafValues>
        -4.7681194543838501e-01 1.1602491140365601e-01</leafValues></_>
    <_>
      <internalNodes>
        0 -1 159738 -5.1009177695959806e-04</internalNodes>
      <leafValues>
        -3.5068306326866150e-01 1.2967109680175781e-01</leafValues></_>
    <_>
      <internalNodes>
        0 -1 133508 -9.1449248429853469e-05</internalNodes>
      <leafValues>
        1.4575392007827759e-01 -3.0494159460067749e-01</leafValues></_>
    <_>
      <internalNodes>
        0 -1 154141 4.7601386904716492e-03</internalNodes>
      <leafValues>
        -9.9871993064880371e-02 4.3737378716468811e-01</leafValues></_>
    <_>
      <internalNodes>
        0 -1 20327 -1.4056707732379436e-02</internalNodes>
      <leafValues>
        6.8007761240005493e-01 -6.1285462230443954e-02</leafValues></_>
    <_>
      <internalNodes>
        0 -1 99053 1.5713947359472513e-03</internalNodes>
      <leafValues>
        -1.3809940218925476e-01 3.4596934914588928e-01</leafValues></_>
    <_>
      <internalNodes>
        0 -1 115661 1.8674406455829740e-03</internalNodes>
      <leafValues>
        7.5039997696876526e-02 -5.7352352142333984e-01</leafValues></_>
    <_>
      <internalNodes>
        0 -1 124547 1.2205254286527634e-02</internalNodes>
      <leafValues>
        5.1384698599576950e-02 -6.9901847839355469e-01</leafValues></_>
    <_>
      <internalNodes>
        0 -1 118413 3.0722995288670063e-03</internalNodes>
      <leafValues>
        -1.8625991046428680e-01 2.2714912891387939e-01</leafValues></_>
    <_>
      <internalNodes>
        0 -1 140388 5.7355696335434914e-03</internalNodes>
      <leafValues>
        -1.2757007777690887e-01 3.6684533953666687e-01</leafValues></_>
    <_>
      <internalNodes>
        0 -1 120359 -6.5367761999368668e-04</internalNodes>
      <leafValues>
        -6.2087595462799072e-01 7.5317375361919403e-02</leafValues></_>
    <_>
      <internalNodes>
        0 -1 89334 3.0578305944800377e-02</internalNodes>
      <leafValues>
        -9.6631631255149841e-02 4.7691693902015686e-01</leafValues></_>
    <_>
      <internalNodes>
        0 -1 120388 2.1138589363545179e-03</internalNodes>
      <leafValues>
        6.4663529396057129e-02 -7.3610275983810425e-01</leafValues></_>
    <_>
      <internalNodes>
        0 -1 80138 6.3633751124143600e-03</internalNodes>
      <leafValues>
        -8.2188621163368225e-02 6.1339449882507324e-01</leafValues></_>
    <_>
      <internalNodes>
        0 -1 141638 -2.7630869299173355e-03</internalNodes>
      <leafValues>
        3.8820117712020874e-01 -1.0277862101793289e-01</leafValues></_>
    <_>
      <internalNodes>
        0 -1 65218 -4.0953140705823898e-03</internalNodes>
      <leafValues>
        -6.2474745512008667e-01 7.4283331632614136e-02</leafValues></_>
    <_>
      <internalNodes>
        0 -1 114737 -2.3839920759201050e-03</internalNodes>
      <leafValues>
        2.2042307257652283e-01 -1.9280348718166351e-01</leafValues></_>
    <_>
      <internalNodes>
        0 -1 11958 7.6633105054497719e-03</internalNodes>
      <leafValues>
        -1.1945436894893646e-01 3.8427323102951050e-01</leafValues></_>
    <_>
      <internalNodes>
        0 -1 141629 -1.3141802046447992e-03</internalNodes>
      <leafValues>
        3.1211364269256592e-01 -1.2594130635261536e-01</leafValues></_>
    <_>
      <internalNodes>
        0 -1 112491 -3.3712793083395809e-05</internalNodes>
      <leafValues>
        1.6386763751506805e-01 -2.3084297776222229e-01</leafValues></_>
    <_>
      <internalNodes>
        0 -1 60436 6.2532874289900064e-04</internalNodes>
      <leafValues>
        8.4292709827423096e-02 -4.8785939812660217e-01</leafValues></_>
    <_>
      <internalNodes>
        0 -1 111021 -1.4343468938022852e-03</internalNodes>
      <leafValues>
        3.6035171151161194e-01 -1.1371468007564545e-01</leafValues></_>
    <_>
      <internalNodes>
        0 -1 111430 5.1433185581117868e-04</internalNodes>
      <leafValues>
        -1.3183896243572235e-01 3.4059762954711914e-01</leafValues></_>
    <_>
      <internalNodes>
        0 -1 123610 -8.8853441178798676e-02</internalNodes>
      <leafValues>
        6.9727368652820587e-02 -6.3960134983062744e-01</leafValues></_>
    <_>
      <internalNodes>
        0 -1 94867 7.1160430088639259e-03</internalNodes>
      <leafValues>
        5.4022524505853653e-02 -6.7150735855102539e-01</leafValues></_>
    <_>
      <internalNodes>
        0 -1 118248 7.2444416582584381e-04</internalNodes>
      <leafValues>
        -1.3382284343242645e-01 3.1245329976081848e-01</leafValues></_>
    <_>
      <internalNodes>
        0 -1 109322 -2.4388551246374846e-03</internalNodes>
      <leafValues>
        -5.2056515216827393e-01 7.6806947588920593e-02</leafValues></_>
    <_>
      <internalNodes>
        0 -1 118257 9.1695645824074745e-04</internalNodes>
      <leafValues>
        -1.4686472713947296e-01 2.7857539057731628e-01</leafValues></_>
    <_>
      <internalNodes>
        0 -1 120755 1.6255693044513464e-03</internalNodes>
      <leafValues>
        7.9154111444950104e-02 -5.0998920202255249e-01</leafValues></_>
    <_>
      <internalNodes>
        0 -1 120898 -9.7431853646412492e-04</internalNodes>
      <leafValues>
        -5.8595472574234009e-01 6.2617599964141846e-02</leafValues></_>
    <_>
      <internalNodes>
        0 -1 159064 5.6751538068056107e-03</internalNodes>
      <leafValues>
        -1.3631147146224976e-01 3.0828377604484558e-01</leafValues></_>
    <_>
      <internalNodes>
        0 -1 60530 -7.9828053712844849e-03</internalNodes>
      <leafValues>
        4.5031064748764038e-01 -8.7240435183048248e-02</leafValues></_></weakClassifiers></stage9>
</opencv_storage>
