<?xml version="1.0"?>
<opencv_storage>
<stage16>
  <maxWeakCount>66</maxWeakCount>
  <stageThreshold>-7.5431239604949951e-01</stageThreshold>
  <weakClassifiers>
    <_>
      <internalNodes>
        0 -1 114083 1.1835451005026698e-03</internalNodes>
      <leafValues>
        5.8787876367568970e-01 -4.1509434580802917e-01</leafValues></_>
    <_>
      <internalNodes>
        0 -1 99133 6.6657230257987976e-02</internalNodes>
      <leafValues>
        -2.4786246940493584e-02 4.5538711547851563e-01</leafValues></_>
    <_>
      <internalNodes>
        0 -1 122798 1.0419567674398422e-01</internalNodes>
      <leafValues>
        -1.5188594162464142e-01 3.8238221406936646e-01</leafValues></_>
    <_>
      <internalNodes>
        0 -1 26124 -4.9985274672508240e-03</internalNodes>
      <leafValues>
        -4.5872950553894043e-01 8.5830107331275940e-02</leafValues></_>
    <_>
      <internalNodes>
        0 -1 99053 3.6504906602203846e-03</internalNodes>
      <leafValues>
        -1.0170661658048630e-01 4.2399856448173523e-01</leafValues></_>
    <_>
      <internalNodes>
        0 -1 90339 2.6147367898374796e-03</internalNodes>
      <leafValues>
        -2.1336258947849274e-01 2.6930284500122070e-01</leafValues></_>
    <_>
      <internalNodes>
        0 -1 159812 7.1671965997666121e-04</internalNodes>
      <leafValues>
        1.3403131067752838e-01 -4.1960191726684570e-01</leafValues></_>
    <_>
      <internalNodes>
        0 -1 140379 -4.4706864282488823e-03</internalNodes>
      <leafValues>
        3.1425112485885620e-01 -1.0915818810462952e-01</leafValues></_>
    <_>
      <internalNodes>
        0 -1 145128 -1.2943208217620850e-02</internalNodes>
      <leafValues>
        3.8454627990722656e-01 -1.4361211657524109e-01</leafValues></_>
    <_>
      <internalNodes>
        0 -1 127858 -4.6472690883092582e-04</internalNodes>
      <leafValues>
        1.3549260795116425e-01 -2.6310640573501587e-01</leafValues></_>
    <_>
      <internalNodes>
        0 -1 122519 2.0010413601994514e-02</internalNodes>
      <leafValues>
        -1.2097150832414627e-01 3.2408824563026428e-01</leafValues></_>
    <_>
      <internalNodes>
        0 -1 94717 -1.3784350594505668e-03</internalNodes>
      <leafValues>
        3.3677926659584045e-01 -1.1067871749401093e-01</leafValues></_>
    <_>
      <internalNodes>
        0 -1 94717 1.0992996394634247e-03</internalNodes>
      <leafValues>
        -1.3321703672409058e-01 2.5942698121070862e-01</leafValues></_>
    <_>
      <internalNodes>
        0 -1 128120 -1.9000684842467308e-03</internalNodes>
      <leafValues>
        -4.2435008287429810e-01 8.0983996391296387e-02</leafValues></_>
    <_>
      <internalNodes>
        0 -1 84331 1.9814189523458481e-02</internalNodes>
      <leafValues>
        4.8273686319589615e-02 -5.9804493188858032e-01</leafValues></_>
    <_>
      <internalNodes>
        0 -1 135068 -5.7410849258303642e-03</internalNodes>
      <leafValues>
        3.1441059708595276e-01 -1.1642605066299438e-01</leafValues></_>
    <_>
      <internalNodes>
        0 -1 119323 3.2859421335160732e-03</internalNodes>
      <leafValues>
        5.2513070404529572e-02 -6.2244695425033569e-01</leafValues></_>
    <_>
      <internalNodes>
        0 -1 147755 -6.8303192965686321e-03</internalNodes>
      <leafValues>
        6.3168495893478394e-01 -5.3346753120422363e-02</leafValues></_>
    <_>
      <internalNodes>
        0 -1 111524 -6.5741678699851036e-03</internalNodes>
      <leafValues>
        -6.4562696218490601e-01 5.4956037551164627e-02</leafValues></_>
    <_>
      <internalNodes>
        0 -1 113144 -9.6653529908508062e-04</internalNodes>
      <leafValues>
        -2.7811899781227112e-01 9.8207898437976837e-02</leafValues></_>
    <_>
      <internalNodes>
        0 -1 122948 4.8259450122714043e-03</internalNodes>
      <leafValues>
        -1.2501150369644165e-01 2.6073133945465088e-01</leafValues></_>
    <_>
      <internalNodes>
        0 -1 136070 1.0543382726609707e-02</internalNodes>
      <leafValues>
        5.3189303725957870e-02 -5.8013880252838135e-01</leafValues></_>
    <_>
      <internalNodes>
        0 -1 146525 3.4430805593729019e-02</internalNodes>
      <leafValues>
        3.9930697530508041e-02 -5.6851780414581299e-01</leafValues></_>
    <_>
      <internalNodes>
        0 -1 60436 1.8098318832926452e-04</internalNodes>
      <leafValues>
        9.2683665454387665e-02 -2.8346735239028931e-01</leafValues></_>
    <_>
      <internalNodes>
        0 -1 80854 4.2393961921334267e-03</internalNodes>
      <leafValues>
        -1.0883699357509613e-01 2.7371135354042053e-01</leafValues></_>
    <_>
      <internalNodes>
        0 -1 114083 -8.4014912135899067e-04</internalNodes>
      <leafValues>
        -5.5424332618713379e-01 4.6952154487371445e-02</leafValues></_>
    <_>
      <internalNodes>
        0 -1 86044 6.5072244033217430e-03</internalNodes>
      <leafValues>
        3.2963134348392487e-02 -6.5317142009735107e-01</leafValues></_>
    <_>
      <internalNodes>
        0 -1 111525 2.0608017221093178e-03</internalNodes>
      <leafValues>
        -1.0606163740158081e-01 2.5089821219444275e-01</leafValues></_>
    <_>
      <internalNodes>
        0 -1 154906 3.1413938850164413e-03</internalNodes>
      <leafValues>
        -1.0462384670972824e-01 2.9618778824806213e-01</leafValues></_>
    <_>
      <internalNodes>
        0 -1 12325 2.1326705813407898e-02</internalNodes>
      <leafValues>
        -8.9771196246147156e-02 2.8112274408340454e-01</leafValues></_>
    <_>
      <internalNodes>
        0 -1 22738 -4.0459856390953064e-03</internalNodes>
      <leafValues>
        2.3472191393375397e-01 -1.3978931307792664e-01</leafValues></_>
    <_>
      <internalNodes>
        0 -1 33211 1.7164761666208506e-03</internalNodes>
      <leafValues>
        -7.8351244330406189e-02 3.4143233299255371e-01</leafValues></_>
    <_>
      <internalNodes>
        0 -1 19702 -2.3044398054480553e-02</internalNodes>
      <leafValues>
        -4.6254742145538330e-01 6.2668018043041229e-02</leafValues></_>
    <_>
      <internalNodes>
        0 -1 8152 2.9213121160864830e-03</internalNodes>
      <leafValues>
        7.4175454676151276e-02 -3.2726329565048218e-01</leafValues></_>
    <_>
      <internalNodes>
        0 -1 74459 1.2569343671202660e-03</internalNodes>
      <leafValues>
        -1.0804191976785660e-01 2.6253011822700500e-01</leafValues></_>
    <_>
      <internalNodes>
        0 -1 62920 -6.0548707842826843e-03</internalNodes>
      <leafValues>
        2.7287542819976807e-01 -9.4846732914447784e-02</leafValues></_>
    <_>
      <internalNodes>
        0 -1 102874 5.0790263339877129e-03</internalNodes>
      <leafValues>
        3.6479033529758453e-02 -7.4344700574874878e-01</leafValues></_>
    <_>
      <internalNodes>
        0 -1 57415 3.4291908144950867e-02</internalNodes>
      <leafValues>
        -5.4538890719413757e-02 5.3988099098205566e-01</leafValues></_>
    <_>
      <internalNodes>
        0 -1 25507 -1.4754557982087135e-02</internalNodes>
      <leafValues>
        3.4063908457756042e-01 -7.7701330184936523e-02</leafValues></_>
    <_>
      <internalNodes>
        0 -1 133198 -4.2234482243657112e-03</internalNodes>
      <leafValues>
        2.4730005860328674e-01 -1.1411269009113312e-01</leafValues></_>
    <_>
      <internalNodes>
        0 -1 112174 -3.1693466007709503e-03</internalNodes>
      <leafValues>
        -6.6276037693023682e-01 4.0794603526592255e-02</leafValues></_>
    <_>
      <internalNodes>
        0 -1 89607 1.5493441373109818e-02</internalNodes>
      <leafValues>
        -6.4033269882202148e-02 4.3899762630462646e-01</leafValues></_>
    <_>
      <internalNodes>
        0 -1 141634 -1.5820414992049336e-03</internalNodes>
      <leafValues>
        2.2575367987155914e-01 -1.0881543904542923e-01</leafValues></_>
    <_>
      <internalNodes>
        0 -1 141629 1.4408720890060067e-03</internalNodes>
      <leafValues>
        -1.0301421582698822e-01 2.6609411835670471e-01</leafValues></_>
    <_>
      <internalNodes>
        0 -1 120125 -5.4088281467556953e-04</internalNodes>
      <leafValues>
        -4.2976137995719910e-01 6.3154466450214386e-02</leafValues></_>
    <_>
      <internalNodes>
        0 -1 126062 1.4597666449844837e-03</internalNodes>
      <leafValues>
        3.9621174335479736e-02 -5.6500244140625000e-01</leafValues></_>
    <_>
      <internalNodes>
        0 -1 74044 -4.4938363134860992e-03</internalNodes>
      <leafValues>
        -6.5463674068450928e-01 3.2028995454311371e-02</leafValues></_>
    <_>
      <internalNodes>
        0 -1 86158 4.9611203372478485e-02</internalNodes>
      <leafValues>
        3.2693330198526382e-02 -6.3617956638336182e-01</leafValues></_>
    <_>
      <internalNodes>
        0 -1 118248 -1.7586569301784039e-03</internalNodes>
      <leafValues>
        3.4244123101234436e-01 -7.1937091648578644e-02</leafValues></_>
    <_>
      <internalNodes>
        0 -1 100563 -2.1167397499084473e-03</internalNodes>
      <leafValues>
        2.9438647627830505e-01 -7.6831884682178497e-02</leafValues></_>
    <_>
      <internalNodes>
        0 -1 60441 -1.0147690773010254e-03</internalNodes>
      <leafValues>
        -3.5623562335968018e-01 7.4990130960941315e-02</leafValues></_>
    <_>
      <internalNodes>
        0 -1 70805 -1.8805533181875944e-03</internalNodes>
      <leafValues>
        2.1966736018657684e-01 -1.1291885375976563e-01</leafValues></_>
    <_>
      <internalNodes>
        0 -1 114191 -1.9950317800976336e-04</internalNodes>
      <leafValues>
        1.0838866978883743e-01 -2.3941296339035034e-01</leafValues></_>
    <_>
      <internalNodes>
        0 -1 89821 -1.4639412984251976e-02</internalNodes>
      <leafValues>
        3.9115765690803528e-01 -6.8974368274211884e-02</leafValues></_>
    <_>
      <internalNodes>
        0 -1 46396 -9.3117892742156982e-02</internalNodes>
      <leafValues>
        -4.4988700747489929e-01 5.7709295302629471e-02</leafValues></_>
    <_>
      <internalNodes>
        0 -1 127120 3.1712334020994604e-04</internalNodes>
      <leafValues>
        -1.5103805065155029e-01 1.7264178395271301e-01</leafValues></_>
    <_>
      <internalNodes>
        0 -1 121045 1.0344884358346462e-03</internalNodes>
      <leafValues>
        3.8642775267362595e-02 -6.7844396829605103e-01</leafValues></_>
    <_>
      <internalNodes>
        0 -1 126066 1.2276798952370882e-03</internalNodes>
      <leafValues>
        3.5568669438362122e-02 -5.4286289215087891e-01</leafValues></_>
    <_>
      <internalNodes>
        0 -1 134232 2.4720679502934217e-03</internalNodes>
      <leafValues>
        -1.1090496927499771e-01 2.1645881235599518e-01</leafValues></_>
    <_>
      <internalNodes>
        0 -1 121619 6.8135589361190796e-02</internalNodes>
      <leafValues>
        3.8121797144412994e-02 -6.6668838262557983e-01</leafValues></_>
    <_>
      <internalNodes>
        0 -1 157777 -3.4871191019192338e-04</internalNodes>
      <leafValues>
        -3.1695216894149780e-01 6.4962036907672882e-02</leafValues></_>
    <_>
      <internalNodes>
        0 -1 77738 2.9928651638329029e-03</internalNodes>
      <leafValues>
        -1.1352159082889557e-01 2.0867119729518890e-01</leafValues></_>
    <_>
      <internalNodes>
        0 -1 29646 -4.2217122390866280e-03</internalNodes>
      <leafValues>
        3.1547188758850098e-01 -7.4993759393692017e-02</leafValues></_>
    <_>
      <internalNodes>
        0 -1 65160 8.0259200185537338e-03</internalNodes>
      <leafValues>
        5.6171894073486328e-02 -4.3780499696731567e-01</leafValues></_>
    <_>
      <internalNodes>
        0 -1 97904 4.9064811319112778e-03</internalNodes>
      <leafValues>
        4.4314309954643250e-02 -4.7726690769195557e-01</leafValues></_>
    <_>
      <internalNodes>
        0 -1 1105 4.2073981603607535e-04</internalNodes>
      <leafValues>
        6.0114745050668716e-02 -3.5766199231147766e-01</leafValues></_></weakClassifiers></stage16>
</opencv_storage>
